network unknown {}

variable n0000q0000 {
  type discrete [ 2 ] { ZERO, ONE };
}
probability ( n0000q0000 ) {
  table 1, 0;
}

variable n0000q0001 {
  type discrete [ 2 ] { ZERO, ONE };
}
probability ( n0000q0001 ) {
  table 1, 0;
}

variable n0000q0002 {
  type discrete [ 2 ] { ZERO, ONE };
}
probability ( n0000q0002 ) {
  table 1, 0;
}

variable n0000q0003 {
  type discrete [ 2 ] { ZERO, ONE };
}
probability ( n0000q0003 ) {
  table 1, 0;
}

variable n0000q0004 {
  type discrete [ 2 ] { ZERO, ONE };
}
probability ( n0000q0004 ) {
  table 1, 0;
}

variable n0000q0005 {
  type discrete [ 2 ] { ZERO, ONE };
}
probability ( n0000q0005 ) {
  table 1, 0;
}

variable n0000q0006 {
  type discrete [ 2 ] { ZERO, ONE };
}
probability ( n0000q0006 ) {
  table 1, 0;
}

variable n0000q0007 {
  type discrete [ 2 ] { ZERO, ONE };
}
probability ( n0000q0007 ) {
  table 1, 0;
}

variable n0000q0008 {
  type discrete [ 2 ] { ZERO, ONE };
}
probability ( n0000q0008 ) {
  table 1, 0;
}

variable n0000q0009 {
  type discrete [ 2 ] { ZERO, ONE };
}
probability ( n0000q0009 ) {
  table 1, 0;
}

variable n0000q0010 {
  type discrete [ 2 ] { ZERO, ONE };
}
probability ( n0000q0010 ) {
  table 1, 0;
}

variable n0000q0011 {
  type discrete [ 2 ] { ZERO, ONE };
}
probability ( n0000q0011 ) {
  table 1, 0;
}

variable n0000q0012 {
  type discrete [ 2 ] { ZERO, ONE };
}
probability ( n0000q0012 ) {
  table 1, 0;
}

variable n0000q0013 {
  type discrete [ 2 ] { ZERO, ONE };
}
probability ( n0000q0013 ) {
  table 1, 0;
}

variable n0000q0014 {
  type discrete [ 2 ] { ZERO, ONE };
}
probability ( n0000q0014 ) {
  table 1, 0;
}

variable n0000q0015 {
  type discrete [ 2 ] { ZERO, ONE };
}
probability ( n0000q0015 ) {
  table 1, 0;
}

variable n0001q0000 {
  type discrete [ 2 ] { ZERO, ONE };
}
probability ( n0001q0000 | n0000q0000 ) {
  (ZERO) 0.70710678+0.00000000i, 0.70710678+0.00000000i;
  (ONE ) 0.70710678+0.00000000i, -0.70710678+0.00000000i;
}

variable n0001q0001 {
  type discrete [ 2 ] { ZERO, ONE };
}
probability ( n0001q0001 | n0000q0001 ) {
  (ZERO) 0.70710678+0.00000000i, 0.70710678+0.00000000i;
  (ONE ) 0.70710678+0.00000000i, -0.70710678+0.00000000i;
}

variable n0001q0002 {
  type discrete [ 2 ] { ZERO, ONE };
}
probability ( n0001q0002 | n0000q0002 ) {
  (ZERO) 0.70710678+0.00000000i, 0.70710678+0.00000000i;
  (ONE ) 0.70710678+0.00000000i, -0.70710678+0.00000000i;
}

variable n0001q0003 {
  type discrete [ 2 ] { ZERO, ONE };
}
probability ( n0001q0003 | n0000q0003 ) {
  (ZERO) 0.70710678+0.00000000i, 0.70710678+0.00000000i;
  (ONE ) 0.70710678+0.00000000i, -0.70710678+0.00000000i;
}

variable n0001q0004 {
  type discrete [ 2 ] { ZERO, ONE };
}
probability ( n0001q0004 | n0000q0004 ) {
  (ZERO) 0.70710678+0.00000000i, 0.70710678+0.00000000i;
  (ONE ) 0.70710678+0.00000000i, -0.70710678+0.00000000i;
}

variable n0001q0005 {
  type discrete [ 2 ] { ZERO, ONE };
}
probability ( n0001q0005 | n0000q0005 ) {
  (ZERO) 0.70710678+0.00000000i, 0.70710678+0.00000000i;
  (ONE ) 0.70710678+0.00000000i, -0.70710678+0.00000000i;
}

variable n0001q0006 {
  type discrete [ 2 ] { ZERO, ONE };
}
probability ( n0001q0006 | n0000q0006 ) {
  (ZERO) 0.70710678+0.00000000i, 0.70710678+0.00000000i;
  (ONE ) 0.70710678+0.00000000i, -0.70710678+0.00000000i;
}

variable n0001q0007 {
  type discrete [ 2 ] { ZERO, ONE };
}
probability ( n0001q0007 | n0000q0007 ) {
  (ZERO) 0.70710678+0.00000000i, 0.70710678+0.00000000i;
  (ONE ) 0.70710678+0.00000000i, -0.70710678+0.00000000i;
}

variable n0001q0008 {
  type discrete [ 2 ] { ZERO, ONE };
}
probability ( n0001q0008 | n0000q0008 ) {
  (ZERO) 0.70710678+0.00000000i, 0.70710678+0.00000000i;
  (ONE ) 0.70710678+0.00000000i, -0.70710678+0.00000000i;
}

variable n0001q0009 {
  type discrete [ 2 ] { ZERO, ONE };
}
probability ( n0001q0009 | n0000q0009 ) {
  (ZERO) 0.70710678+0.00000000i, 0.70710678+0.00000000i;
  (ONE ) 0.70710678+0.00000000i, -0.70710678+0.00000000i;
}

variable n0001q0010 {
  type discrete [ 2 ] { ZERO, ONE };
}
probability ( n0001q0010 | n0000q0010 ) {
  (ZERO) 0.70710678+0.00000000i, 0.70710678+0.00000000i;
  (ONE ) 0.70710678+0.00000000i, -0.70710678+0.00000000i;
}

variable n0001q0011 {
  type discrete [ 2 ] { ZERO, ONE };
}
probability ( n0001q0011 | n0000q0011 ) {
  (ZERO) 0.70710678+0.00000000i, 0.70710678+0.00000000i;
  (ONE ) 0.70710678+0.00000000i, -0.70710678+0.00000000i;
}

variable n0001q0012 {
  type discrete [ 2 ] { ZERO, ONE };
}
probability ( n0001q0012 | n0000q0012 ) {
  (ZERO) 0.70710678+0.00000000i, 0.70710678+0.00000000i;
  (ONE ) 0.70710678+0.00000000i, -0.70710678+0.00000000i;
}

variable n0001q0013 {
  type discrete [ 2 ] { ZERO, ONE };
}
probability ( n0001q0013 | n0000q0013 ) {
  (ZERO) 0.70710678+0.00000000i, 0.70710678+0.00000000i;
  (ONE ) 0.70710678+0.00000000i, -0.70710678+0.00000000i;
}

variable n0001q0014 {
  type discrete [ 2 ] { ZERO, ONE };
}
probability ( n0001q0014 | n0000q0014 ) {
  (ZERO) 0.70710678+0.00000000i, 0.70710678+0.00000000i;
  (ONE ) 0.70710678+0.00000000i, -0.70710678+0.00000000i;
}

variable n0001q0015 {
  type discrete [ 2 ] { ZERO, ONE };
}
probability ( n0001q0015 | n0000q0015 ) {
  (ZERO) 0.70710678+0.00000000i, 0.70710678+0.00000000i;
  (ONE ) 0.70710678+0.00000000i, -0.70710678+0.00000000i;
}

variable n0002q0005 {
  type discrete [ 2 ] { ZERO, ONE };
}
probability ( n0002q0005 | n0001q0005 ) {
  (ZERO) 1, 0;
  (ONE ) 0, 143736;
}

variable n0002q0013 {
  type discrete [ 2 ] { ZERO, ONE };
}
probability ( n0002q0013 | n0001q0013 ) {
  (ZERO) 1, 0;
  (ONE ) 0, 143736;
}

variable n0002q0008 {
  type discrete [ 2 ] { ZERO, ONE };
}
probability ( n0002q0008 | n0001q0008 ) {
  (ZERO) 1, 0;
  (ONE ) 0, 143736;
}

variable n0002q0009 {
  type discrete [ 2 ] { ZERO, ONE };
}
probability ( n0002q0009 | n0001q0009 ) {
  (ZERO) 1, 0;
  (ONE ) 0, 143736;
}

variable n0002q0006 {
  type discrete [ 2 ] { ZERO, ONE };
}
probability ( n0002q0006 | n0001q0006 ) {
  (ZERO) 1, 0;
  (ONE ) 0, 143736;
}

variable n0002q0014 {
  type discrete [ 2 ] { ZERO, ONE };
}
probability ( n0002q0014 | n0001q0014 ) {
  (ZERO) 1, 0;
  (ONE ) 0, 143736;
}

variable n0003q0013 {
  type discrete [ 2 ] { ZERO, ONE };
}
probability ( n0003q0013 | n0002q0005, n0002q0013 ) {
  (ZERO,ZERO) 48881, 0;
  (ZERO,ONE ) 0, 48881;
  (ONE ,ZERO) 48881, 0;
  (ONE ,ONE ) 0, 22888;
}

variable n0003q0009 {
  type discrete [ 2 ] { ZERO, ONE };
}
probability ( n0003q0009 | n0002q0008, n0002q0009 ) {
  (ZERO,ZERO) 48881, 0;
  (ZERO,ONE ) 0, 48881;
  (ONE ,ZERO) 48881, 0;
  (ONE ,ONE ) 0, 22888;
}

variable n0003q0014 {
  type discrete [ 2 ] { ZERO, ONE };
}
probability ( n0003q0014 | n0002q0006, n0002q0014 ) {
  (ZERO,ZERO) 48881, 0;
  (ZERO,ONE ) 0, 48881;
  (ONE ,ZERO) 48881, 0;
  (ONE ,ONE ) 0, 22888;
}

variable n0004q0005 {
  type discrete [ 2 ] { ZERO, ONE };
}
probability ( n0004q0005 | n0002q0005 ) {
  (ZERO) 1, 0;
  (ONE ) 0, 143736;
}

variable n0004q0012 {
  type discrete [ 2 ] { ZERO, ONE };
}
probability ( n0004q0012 | n0001q0012 ) {
  (ZERO) 1, 0;
  (ONE ) 0, 143736;
}

variable n0004q0013 {
  type discrete [ 2 ] { ZERO, ONE };
}
probability ( n0004q0013 | n0003q0013 ) {
  (ZERO) 1, 0;
  (ONE ) 0, 143736;
}

variable n0004q0001 {
  type discrete [ 2 ] { ZERO, ONE };
}
probability ( n0004q0001 | n0001q0001 ) {
  (ZERO) 1, 0;
  (ONE ) 0, 143736;
}

variable n0004q0009 {
  type discrete [ 2 ] { ZERO, ONE };
}
probability ( n0004q0009 | n0003q0009 ) {
  (ZERO) 1, 0;
  (ONE ) 0, 143736;
}

variable n0004q0010 {
  type discrete [ 2 ] { ZERO, ONE };
}
probability ( n0004q0010 | n0001q0010 ) {
  (ZERO) 1, 0;
  (ONE ) 0, 143736;
}

variable n0004q0006 {
  type discrete [ 2 ] { ZERO, ONE };
}
probability ( n0004q0006 | n0002q0006 ) {
  (ZERO) 1, 0;
  (ONE ) 0, 143736;
}

variable n0004q0015 {
  type discrete [ 2 ] { ZERO, ONE };
}
probability ( n0004q0015 | n0001q0015 ) {
  (ZERO) 1, 0;
  (ONE ) 0, 143736;
}

variable n0004q0014 {
  type discrete [ 2 ] { ZERO, ONE };
}
probability ( n0004q0014 | n0003q0014 ) {
  (ZERO) 1, 0;
  (ONE ) 0, 143736;
}

variable n0004q0007 {
  type discrete [ 2 ] { ZERO, ONE };
}
probability ( n0004q0007 | n0001q0007 ) {
  (ZERO) 1, 0;
  (ONE ) 0, 143736;
}

variable n0005q0012 {
  type discrete [ 2 ] { ZERO, ONE };
}
probability ( n0005q0012 | n0004q0005, n0004q0012 ) {
  (ZERO,ZERO) 48881, 0;
  (ZERO,ONE ) 0, 48881;
  (ONE ,ZERO) 48881, 0;
  (ONE ,ONE ) 0, 22888;
}

variable n0005q0001 {
  type discrete [ 2 ] { ZERO, ONE };
}
probability ( n0005q0001 | n0004q0013, n0004q0001 ) {
  (ZERO,ZERO) 48881, 0;
  (ZERO,ONE ) 0, 48881;
  (ONE ,ZERO) 48881, 0;
  (ONE ,ONE ) 0, 22888;
}

variable n0005q0010 {
  type discrete [ 2 ] { ZERO, ONE };
}
probability ( n0005q0010 | n0004q0009, n0004q0010 ) {
  (ZERO,ZERO) 48881, 0;
  (ZERO,ONE ) 0, 48881;
  (ONE ,ZERO) 48881, 0;
  (ONE ,ONE ) 0, 22888;
}

variable n0005q0015 {
  type discrete [ 2 ] { ZERO, ONE };
}
probability ( n0005q0015 | n0004q0006, n0004q0015 ) {
  (ZERO,ZERO) 48881, 0;
  (ZERO,ONE ) 0, 48881;
  (ONE ,ZERO) 48881, 0;
  (ONE ,ONE ) 0, 22888;
}

variable n0005q0007 {
  type discrete [ 2 ] { ZERO, ONE };
}
probability ( n0005q0007 | n0004q0014, n0004q0007 ) {
  (ZERO,ZERO) 48881, 0;
  (ZERO,ONE ) 0, 48881;
  (ONE ,ZERO) 48881, 0;
  (ONE ,ONE ) 0, 22888;
}

variable n0006q0005 {
  type discrete [ 2 ] { ZERO, ONE };
}
probability ( n0006q0005 | n0004q0005 ) {
  (ZERO) 1, 0;
  (ONE ) 0, 143736;
}

variable n0006q0011 {
  type discrete [ 2 ] { ZERO, ONE };
}
probability ( n0006q0011 | n0001q0011 ) {
  (ZERO) 1, 0;
  (ONE ) 0, 143736;
}

variable n0006q0013 {
  type discrete [ 2 ] { ZERO, ONE };
}
probability ( n0006q0013 | n0004q0013 ) {
  (ZERO) 1, 0;
  (ONE ) 0, 143736;
}

variable n0006q0000 {
  type discrete [ 2 ] { ZERO, ONE };
}
probability ( n0006q0000 | n0001q0000 ) {
  (ZERO) 1, 0;
  (ONE ) 0, 143736;
}

variable n0006q0014 {
  type discrete [ 2 ] { ZERO, ONE };
}
probability ( n0006q0014 | n0004q0014 ) {
  (ZERO) 1, 0;
  (ONE ) 0, 143736;
}

variable n0006q0015 {
  type discrete [ 2 ] { ZERO, ONE };
}
probability ( n0006q0015 | n0005q0015 ) {
  (ZERO) 1, 0;
  (ONE ) 0, 143736;
}

variable n0006q0007 {
  type discrete [ 2 ] { ZERO, ONE };
}
probability ( n0006q0007 | n0005q0007 ) {
  (ZERO) 1, 0;
  (ONE ) 0, 143736;
}

variable n0006q0010 {
  type discrete [ 2 ] { ZERO, ONE };
}
probability ( n0006q0010 | n0005q0010 ) {
  (ZERO) 1, 0;
  (ONE ) 0, 143736;
}

variable n0007q0011 {
  type discrete [ 2 ] { ZERO, ONE };
}
probability ( n0007q0011 | n0006q0005, n0006q0011 ) {
  (ZERO,ZERO) 48881, 0;
  (ZERO,ONE ) 0, 48881;
  (ONE ,ZERO) 48881, 0;
  (ONE ,ONE ) 0, 22888;
}

variable n0007q0000 {
  type discrete [ 2 ] { ZERO, ONE };
}
probability ( n0007q0000 | n0006q0013, n0006q0000 ) {
  (ZERO,ZERO) 48881, 0;
  (ZERO,ONE ) 0, 48881;
  (ONE ,ZERO) 48881, 0;
  (ONE ,ONE ) 0, 22888;
}

variable n0007q0015 {
  type discrete [ 2 ] { ZERO, ONE };
}
probability ( n0007q0015 | n0006q0014, n0006q0015 ) {
  (ZERO,ZERO) 48881, 0;
  (ZERO,ONE ) 0, 48881;
  (ONE ,ZERO) 48881, 0;
  (ONE ,ONE ) 0, 22888;
}

variable n0007q0010 {
  type discrete [ 2 ] { ZERO, ONE };
}
probability ( n0007q0010 | n0006q0007, n0006q0010 ) {
  (ZERO,ZERO) 48881, 0;
  (ZERO,ONE ) 0, 48881;
  (ONE ,ZERO) 48881, 0;
  (ONE ,ONE ) 0, 22888;
}

variable n0008q0005 {
  type discrete [ 2 ] { ZERO, ONE };
}
probability ( n0008q0005 | n0006q0005 ) {
  (ZERO) 205362, 72439;
  (ONE ) 72439, 205362;
}

variable n0008q0013 {
  type discrete [ 2 ] { ZERO, ONE };
}
probability ( n0008q0013 | n0006q0013 ) {
  (ZERO) 205362, 72439;
  (ONE ) 72439, 205362;
}

variable n0008q0014 {
  type discrete [ 2 ] { ZERO, ONE };
}
probability ( n0008q0014 | n0006q0014 ) {
  (ZERO) 205362, 72439;
  (ONE ) 72439, 205362;
}

variable n0008q0008 {
  type discrete [ 2 ] { ZERO, ONE };
}
probability ( n0008q0008 | n0002q0008 ) {
  (ZERO) 1, 0;
  (ONE ) 0, 143736;
}

variable n0008q0011 {
  type discrete [ 2 ] { ZERO, ONE };
}
probability ( n0008q0011 | n0007q0011 ) {
  (ZERO) 1, 0;
  (ONE ) 0, 143736;
}

variable n0008q0009 {
  type discrete [ 2 ] { ZERO, ONE };
}
probability ( n0008q0009 | n0004q0009 ) {
  (ZERO) 1, 0;
  (ONE ) 0, 143736;
}

variable n0008q0000 {
  type discrete [ 2 ] { ZERO, ONE };
}
probability ( n0008q0000 | n0007q0000 ) {
  (ZERO) 1, 0;
  (ONE ) 0, 143736;
}

variable n0008q0010 {
  type discrete [ 2 ] { ZERO, ONE };
}
probability ( n0008q0010 | n0007q0010 ) {
  (ZERO) 1, 0;
  (ONE ) 0, 143736;
}

variable n0008q0004 {
  type discrete [ 2 ] { ZERO, ONE };
}
probability ( n0008q0004 | n0001q0004 ) {
  (ZERO) 1, 0;
  (ONE ) 0, 143736;
}

variable n0009q0011 {
  type discrete [ 2 ] { ZERO, ONE };
}
probability ( n0009q0011 | n0008q0008, n0008q0011 ) {
  (ZERO,ZERO) 48881, 0;
  (ZERO,ONE ) 0, 48881;
  (ONE ,ZERO) 48881, 0;
  (ONE ,ONE ) 0, 22888;
}

variable n0009q0000 {
  type discrete [ 2 ] { ZERO, ONE };
}
probability ( n0009q0000 | n0008q0009, n0008q0000 ) {
  (ZERO,ZERO) 48881, 0;
  (ZERO,ONE ) 0, 48881;
  (ONE ,ZERO) 48881, 0;
  (ONE ,ONE ) 0, 22888;
}

variable n0009q0004 {
  type discrete [ 2 ] { ZERO, ONE };
}
probability ( n0009q0004 | n0008q0010, n0008q0004 ) {
  (ZERO,ZERO) 48881, 0;
  (ZERO,ONE ) 0, 48881;
  (ONE ,ZERO) 48881, 0;
  (ONE ,ONE ) 0, 22888;
}

variable n0010q0009 {
  type discrete [ 2 ] { ZERO, ONE };
}
probability ( n0010q0009 | n0008q0009 ) {
  (ZERO) 205362, 72439;
  (ONE ) 72439, 205362;
}

variable n0010q0010 {
  type discrete [ 2 ] { ZERO, ONE };
}
probability ( n0010q0010 | n0008q0010 ) {
  (ZERO) 205362, 72439;
  (ONE ) 72439, 205362;
}

variable n0010q0008 {
  type discrete [ 2 ] { ZERO, ONE };
}
probability ( n0010q0008 | n0008q0008 ) {
  (ZERO) 1, 0;
  (ONE ) 0, 143736;
}

variable n0010q0001 {
  type discrete [ 2 ] { ZERO, ONE };
}
probability ( n0010q0001 | n0005q0001 ) {
  (ZERO) 1, 0;
  (ONE ) 0, 143736;
}

variable n0010q0000 {
  type discrete [ 2 ] { ZERO, ONE };
}
probability ( n0010q0000 | n0009q0000 ) {
  (ZERO) 1, 0;
  (ONE ) 0, 143736;
}

variable n0010q0003 {
  type discrete [ 2 ] { ZERO, ONE };
}
probability ( n0010q0003 | n0001q0003 ) {
  (ZERO) 1, 0;
  (ONE ) 0, 143736;
}

variable n0010q0015 {
  type discrete [ 2 ] { ZERO, ONE };
}
probability ( n0010q0015 | n0007q0015 ) {
  (ZERO) 1, 0;
  (ONE ) 0, 143736;
}

variable n0010q0004 {
  type discrete [ 2 ] { ZERO, ONE };
}
probability ( n0010q0004 | n0009q0004 ) {
  (ZERO) 1, 0;
  (ONE ) 0, 143736;
}

variable n0010q0005 {
  type discrete [ 2 ] { ZERO, ONE };
}
probability ( n0010q0005 | n0008q0005 ) {
  (ZERO) 1, 0;
  (ONE ) 0, 456381;
}

variable n0010q0013 {
  type discrete [ 2 ] { ZERO, ONE };
}
probability ( n0010q0013 | n0008q0013 ) {
  (ZERO) 1, 0;
  (ONE ) 0, 456381;
}

variable n0011q0001 {
  type discrete [ 2 ] { ZERO, ONE };
}
probability ( n0011q0001 | n0010q0008, n0010q0001 ) {
  (ZERO,ZERO) 48881, 0;
  (ZERO,ONE ) 0, 48881;
  (ONE ,ZERO) 48881, 0;
  (ONE ,ONE ) 0, 22888;
}

variable n0011q0003 {
  type discrete [ 2 ] { ZERO, ONE };
}
probability ( n0011q0003 | n0010q0000, n0010q0003 ) {
  (ZERO,ZERO) 48881, 0;
  (ZERO,ONE ) 0, 48881;
  (ONE ,ZERO) 48881, 0;
  (ONE ,ONE ) 0, 22888;
}

variable n0011q0004 {
  type discrete [ 2 ] { ZERO, ONE };
}
probability ( n0011q0004 | n0010q0015, n0010q0004 ) {
  (ZERO,ZERO) 48881, 0;
  (ZERO,ONE ) 0, 48881;
  (ONE ,ZERO) 48881, 0;
  (ONE ,ONE ) 0, 22888;
}

variable n0011q0013 {
  type discrete [ 2 ] { ZERO, ONE };
}
probability ( n0011q0013 | n0010q0005, n0010q0013 ) {
  (ZERO,ZERO) 815711, 0;
  (ZERO,ONE ) 0, 815711;
  (ONE ,ZERO) 815711, 0;
  (ONE ,ONE ) 0, 197524;
}

variable n0012q0000 {
  type discrete [ 2 ] { ZERO, ONE };
}
probability ( n0012q0000 | n0010q0000 ) {
  (ZERO) 205362, 72439;
  (ONE ) 72439, 205362;
}

variable n0012q0008 {
  type discrete [ 2 ] { ZERO, ONE };
}
probability ( n0012q0008 | n0010q0008 ) {
  (ZERO) 205362, 72439;
  (ONE ) 72439, 205362;
}

variable n0012q0015 {
  type discrete [ 2 ] { ZERO, ONE };
}
probability ( n0012q0015 | n0010q0015 ) {
  (ZERO) 205362, 72439;
  (ONE ) 72439, 205362;
}

variable n0012q0003 {
  type discrete [ 2 ] { ZERO, ONE };
}
probability ( n0012q0003 | n0011q0003 ) {
  (ZERO) 1, 0;
  (ONE ) 0, 143736;
}

variable n0012q0002 {
  type discrete [ 2 ] { ZERO, ONE };
}
probability ( n0012q0002 | n0001q0002 ) {
  (ZERO) 1, 0;
  (ONE ) 0, 143736;
}

variable n0012q0001 {
  type discrete [ 2 ] { ZERO, ONE };
}
probability ( n0012q0001 | n0011q0001 ) {
  (ZERO) 1, 0;
  (ONE ) 0, 143736;
}

variable n0012q0011 {
  type discrete [ 2 ] { ZERO, ONE };
}
probability ( n0012q0011 | n0009q0011 ) {
  (ZERO) 1, 0;
  (ONE ) 0, 143736;
}

variable n0013q0002 {
  type discrete [ 2 ] { ZERO, ONE };
}
probability ( n0013q0002 | n0012q0003, n0012q0002 ) {
  (ZERO,ZERO) 48881, 0;
  (ZERO,ONE ) 0, 48881;
  (ONE ,ZERO) 48881, 0;
  (ONE ,ONE ) 0, 22888;
}

variable n0013q0011 {
  type discrete [ 2 ] { ZERO, ONE };
}
probability ( n0013q0011 | n0012q0001, n0012q0011 ) {
  (ZERO,ZERO) 48881, 0;
  (ZERO,ONE ) 0, 48881;
  (ONE ,ZERO) 48881, 0;
  (ONE ,ONE ) 0, 22888;
}

variable n0014q0001 {
  type discrete [ 2 ] { ZERO, ONE };
}
probability ( n0014q0001 | n0012q0001 ) {
  (ZERO) 205362, 72439;
  (ONE ) 72439, 205362;
}

variable n0014q0011 {
  type discrete [ 2 ] { ZERO, ONE };
}
probability ( n0014q0011 | n0013q0011 ) {
  (ZERO) 205362, 72439;
  (ONE ) 72439, 205362;
}

variable n0014q0003 {
  type discrete [ 2 ] { ZERO, ONE };
}
probability ( n0014q0003 | n0012q0003 ) {
  (ZERO) 1, 0;
  (ONE ) 0, 143736;
}

variable n0014q0012 {
  type discrete [ 2 ] { ZERO, ONE };
}
probability ( n0014q0012 | n0005q0012 ) {
  (ZERO) 1, 0;
  (ONE ) 0, 143736;
}

variable n0014q0007 {
  type discrete [ 2 ] { ZERO, ONE };
}
probability ( n0014q0007 | n0006q0007 ) {
  (ZERO) 1, 0;
  (ONE ) 0, 143736;
}

variable n0014q0002 {
  type discrete [ 2 ] { ZERO, ONE };
}
probability ( n0014q0002 | n0013q0002 ) {
  (ZERO) 1, 0;
  (ONE ) 0, 143736;
}

variable n0014q0008 {
  type discrete [ 2 ] { ZERO, ONE };
}
probability ( n0014q0008 | n0012q0008 ) {
  (ZERO) 1, 0;
  (ONE ) 0, 456381;
}

variable n0014q0009 {
  type discrete [ 2 ] { ZERO, ONE };
}
probability ( n0014q0009 | n0010q0009 ) {
  (ZERO) 1, 0;
  (ONE ) 0, 456381;
}

variable n0015q0012 {
  type discrete [ 2 ] { ZERO, ONE };
}
probability ( n0015q0012 | n0014q0003, n0014q0012 ) {
  (ZERO,ZERO) 48881, 0;
  (ZERO,ONE ) 0, 48881;
  (ONE ,ZERO) 48881, 0;
  (ONE ,ONE ) 0, 22888;
}

variable n0015q0002 {
  type discrete [ 2 ] { ZERO, ONE };
}
probability ( n0015q0002 | n0014q0007, n0014q0002 ) {
  (ZERO,ZERO) 48881, 0;
  (ZERO,ONE ) 0, 48881;
  (ONE ,ZERO) 48881, 0;
  (ONE ,ONE ) 0, 22888;
}

variable n0015q0009 {
  type discrete [ 2 ] { ZERO, ONE };
}
probability ( n0015q0009 | n0014q0008, n0014q0009 ) {
  (ZERO,ZERO) 815711, 0;
  (ZERO,ONE ) 0, 815711;
  (ONE ,ZERO) 815711, 0;
  (ONE ,ONE ) 0, 197524;
}

variable n0016q0003 {
  type discrete [ 2 ] { ZERO, ONE };
}
probability ( n0016q0003 | n0014q0003 ) {
  (ZERO) 205362, 72439;
  (ONE ) 72439, 205362;
}

variable n0016q0007 {
  type discrete [ 2 ] { ZERO, ONE };
}
probability ( n0016q0007 | n0014q0007 ) {
  (ZERO) 205362, 72439;
  (ONE ) 72439, 205362;
}

variable n0016q0006 {
  type discrete [ 2 ] { ZERO, ONE };
}
probability ( n0016q0006 | n0004q0006 ) {
  (ZERO) 1, 0;
  (ONE ) 0, 143736;
}

variable n0016q0012 {
  type discrete [ 2 ] { ZERO, ONE };
}
probability ( n0016q0012 | n0015q0012 ) {
  (ZERO) 1, 0;
  (ONE ) 0, 143736;
}

variable n0016q0004 {
  type discrete [ 2 ] { ZERO, ONE };
}
probability ( n0016q0004 | n0011q0004 ) {
  (ZERO) 1, 0;
  (ONE ) 0, 143736;
}

variable n0016q0002 {
  type discrete [ 2 ] { ZERO, ONE };
}
probability ( n0016q0002 | n0015q0002 ) {
  (ZERO) 1, 0;
  (ONE ) 0, 143736;
}

variable n0016q0013 {
  type discrete [ 2 ] { ZERO, ONE };
}
probability ( n0016q0013 | n0011q0013 ) {
  (ZERO) 1, 0;
  (ONE ) 0, 456381;
}

variable n0016q0001 {
  type discrete [ 2 ] { ZERO, ONE };
}
probability ( n0016q0001 | n0014q0001 ) {
  (ZERO) 1, 0;
  (ONE ) 0, 456381;
}

variable n0016q0009 {
  type discrete [ 2 ] { ZERO, ONE };
}
probability ( n0016q0009 | n0015q0009 ) {
  (ZERO) 1, 0;
  (ONE ) 0, 456381;
}

variable n0016q0010 {
  type discrete [ 2 ] { ZERO, ONE };
}
probability ( n0016q0010 | n0010q0010 ) {
  (ZERO) 1, 0;
  (ONE ) 0, 456381;
}

variable n0017q0012 {
  type discrete [ 2 ] { ZERO, ONE };
}
probability ( n0017q0012 | n0016q0006, n0016q0012 ) {
  (ZERO,ZERO) 48881, 0;
  (ZERO,ONE ) 0, 48881;
  (ONE ,ZERO) 48881, 0;
  (ONE ,ONE ) 0, 22888;
}

variable n0017q0002 {
  type discrete [ 2 ] { ZERO, ONE };
}
probability ( n0017q0002 | n0016q0004, n0016q0002 ) {
  (ZERO,ZERO) 48881, 0;
  (ZERO,ONE ) 0, 48881;
  (ONE ,ZERO) 48881, 0;
  (ONE ,ONE ) 0, 22888;
}

variable n0017q0001 {
  type discrete [ 2 ] { ZERO, ONE };
}
probability ( n0017q0001 | n0016q0013, n0016q0001 ) {
  (ZERO,ZERO) 815711, 0;
  (ZERO,ONE ) 0, 815711;
  (ONE ,ZERO) 815711, 0;
  (ONE ,ONE ) 0, 197524;
}

variable n0017q0010 {
  type discrete [ 2 ] { ZERO, ONE };
}
probability ( n0017q0010 | n0016q0009, n0016q0010 ) {
  (ZERO,ZERO) 815711, 0;
  (ZERO,ONE ) 0, 815711;
  (ONE ,ZERO) 815711, 0;
  (ONE ,ONE ) 0, 197524;
}

variable n0018q0002 {
  type discrete [ 2 ] { ZERO, ONE };
}
probability ( n0018q0002 | n0017q0002 ) {
  (ZERO) 205362, 72439;
  (ONE ) 72439, 205362;
}

variable n0018q0004 {
  type discrete [ 2 ] { ZERO, ONE };
}
probability ( n0018q0004 | n0016q0004 ) {
  (ZERO) 205362, 72439;
  (ONE ) 72439, 205362;
}

variable n0018q0006 {
  type discrete [ 2 ] { ZERO, ONE };
}
probability ( n0018q0006 | n0016q0006 ) {
  (ZERO) 205362, 72439;
  (ONE ) 72439, 205362;
}

variable n0018q0012 {
  type discrete [ 2 ] { ZERO, ONE };
}
probability ( n0018q0012 | n0017q0012 ) {
  (ZERO) 205362, 72439;
  (ONE ) 72439, 205362;
}

variable n0018q0013 {
  type discrete [ 2 ] { ZERO, ONE };
}
probability ( n0018q0013 | n0016q0013 ) {
  (ZERO) 1, 0;
  (ONE ) 0, 456381;
}

variable n0018q0000 {
  type discrete [ 2 ] { ZERO, ONE };
}
probability ( n0018q0000 | n0012q0000 ) {
  (ZERO) 1, 0;
  (ONE ) 0, 456381;
}

variable n0019q0000 {
  type discrete [ 2 ] { ZERO, ONE };
}
probability ( n0019q0000 | n0018q0013, n0018q0000 ) {
  (ZERO,ZERO) 815711, 0;
  (ZERO,ONE ) 0, 815711;
  (ONE ,ZERO) 815711, 0;
  (ONE ,ONE ) 0, 197524;
}

variable n0020q0013 {
  type discrete [ 2 ] { ZERO, ONE };
}
probability ( n0020q0013 | n0018q0013 ) {
  (ZERO) 601793, 770493;
  (ONE ) 770493, 601793;
}

variable n0020q0005 {
  type discrete [ 2 ] { ZERO, ONE };
}
probability ( n0020q0005 | n0010q0005 ) {
  (ZERO) 1, 0;
  (ONE ) 0, 456381;
}

variable n0020q0012 {
  type discrete [ 2 ] { ZERO, ONE };
}
probability ( n0020q0012 | n0018q0012 ) {
  (ZERO) 1, 0;
  (ONE ) 0, 456381;
}

variable n0020q0009 {
  type discrete [ 2 ] { ZERO, ONE };
}
probability ( n0020q0009 | n0016q0009 ) {
  (ZERO) 1, 0;
  (ONE ) 0, 456381;
}

variable n0020q0000 {
  type discrete [ 2 ] { ZERO, ONE };
}
probability ( n0020q0000 | n0019q0000 ) {
  (ZERO) 1, 0;
  (ONE ) 0, 456381;
}

variable n0020q0006 {
  type discrete [ 2 ] { ZERO, ONE };
}
probability ( n0020q0006 | n0018q0006 ) {
  (ZERO) 1, 0;
  (ONE ) 0, 456381;
}

variable n0020q0014 {
  type discrete [ 2 ] { ZERO, ONE };
}
probability ( n0020q0014 | n0008q0014 ) {
  (ZERO) 1, 0;
  (ONE ) 0, 456381;
}

variable n0021q0012 {
  type discrete [ 2 ] { ZERO, ONE };
}
probability ( n0021q0012 | n0020q0005, n0020q0012 ) {
  (ZERO,ZERO) 815711, 0;
  (ZERO,ONE ) 0, 815711;
  (ONE ,ZERO) 815711, 0;
  (ONE ,ONE ) 0, 197524;
}

variable n0021q0000 {
  type discrete [ 2 ] { ZERO, ONE };
}
probability ( n0021q0000 | n0020q0009, n0020q0000 ) {
  (ZERO,ZERO) 815711, 0;
  (ZERO,ONE ) 0, 815711;
  (ONE ,ZERO) 815711, 0;
  (ONE ,ONE ) 0, 197524;
}

variable n0021q0014 {
  type discrete [ 2 ] { ZERO, ONE };
}
probability ( n0021q0014 | n0020q0006, n0020q0014 ) {
  (ZERO,ZERO) 815711, 0;
  (ZERO,ONE ) 0, 815711;
  (ONE ,ZERO) 815711, 0;
  (ONE ,ONE ) 0, 197524;
}

variable n0022q0009 {
  type discrete [ 2 ] { ZERO, ONE };
}
probability ( n0022q0009 | n0020q0009 ) {
  (ZERO) 601793, 770493;
  (ONE ) 770493, 601793;
}

variable n0022q0005 {
  type discrete [ 2 ] { ZERO, ONE };
}
probability ( n0022q0005 | n0020q0005 ) {
  (ZERO) 1, 0;
  (ONE ) 0, 456381;
}

variable n0022q0011 {
  type discrete [ 2 ] { ZERO, ONE };
}
probability ( n0022q0011 | n0014q0011 ) {
  (ZERO) 1, 0;
  (ONE ) 0, 456381;
}

variable n0022q0000 {
  type discrete [ 2 ] { ZERO, ONE };
}
probability ( n0022q0000 | n0021q0000 ) {
  (ZERO) 1, 0;
  (ONE ) 0, 456381;
}

variable n0022q0003 {
  type discrete [ 2 ] { ZERO, ONE };
}
probability ( n0022q0003 | n0016q0003 ) {
  (ZERO) 1, 0;
  (ONE ) 0, 456381;
}

variable n0022q0006 {
  type discrete [ 2 ] { ZERO, ONE };
}
probability ( n0022q0006 | n0020q0006 ) {
  (ZERO) 1, 0;
  (ONE ) 0, 456381;
}

variable n0022q0015 {
  type discrete [ 2 ] { ZERO, ONE };
}
probability ( n0022q0015 | n0012q0015 ) {
  (ZERO) 1, 0;
  (ONE ) 0, 456381;
}

variable n0022q0014 {
  type discrete [ 2 ] { ZERO, ONE };
}
probability ( n0022q0014 | n0021q0014 ) {
  (ZERO) 1, 0;
  (ONE ) 0, 456381;
}

variable n0022q0007 {
  type discrete [ 2 ] { ZERO, ONE };
}
probability ( n0022q0007 | n0016q0007 ) {
  (ZERO) 1, 0;
  (ONE ) 0, 456381;
}

variable n0023q0011 {
  type discrete [ 2 ] { ZERO, ONE };
}
probability ( n0023q0011 | n0022q0005, n0022q0011 ) {
  (ZERO,ZERO) 815711, 0;
  (ZERO,ONE ) 0, 815711;
  (ONE ,ZERO) 815711, 0;
  (ONE ,ONE ) 0, 197524;
}

variable n0023q0003 {
  type discrete [ 2 ] { ZERO, ONE };
}
probability ( n0023q0003 | n0022q0000, n0022q0003 ) {
  (ZERO,ZERO) 815711, 0;
  (ZERO,ONE ) 0, 815711;
  (ONE ,ZERO) 815711, 0;
  (ONE ,ONE ) 0, 197524;
}

variable n0023q0015 {
  type discrete [ 2 ] { ZERO, ONE };
}
probability ( n0023q0015 | n0022q0006, n0022q0015 ) {
  (ZERO,ZERO) 815711, 0;
  (ZERO,ONE ) 0, 815711;
  (ONE ,ZERO) 815711, 0;
  (ONE ,ONE ) 0, 197524;
}

variable n0023q0007 {
  type discrete [ 2 ] { ZERO, ONE };
}
probability ( n0023q0007 | n0022q0014, n0022q0007 ) {
  (ZERO,ZERO) 815711, 0;
  (ZERO,ONE ) 0, 815711;
  (ONE ,ZERO) 815711, 0;
  (ONE ,ONE ) 0, 197524;
}

variable n0024q0000 {
  type discrete [ 2 ] { ZERO, ONE };
}
probability ( n0024q0000 | n0022q0000 ) {
  (ZERO) 601793, 770493;
  (ONE ) 770493, 601793;
}

variable n0024q0005 {
  type discrete [ 2 ] { ZERO, ONE };
}
probability ( n0024q0005 | n0022q0005 ) {
  (ZERO) 601793, 770493;
  (ONE ) 770493, 601793;
}

variable n0024q0008 {
  type discrete [ 2 ] { ZERO, ONE };
}
probability ( n0024q0008 | n0014q0008 ) {
  (ZERO) 1, 0;
  (ONE ) 0, 456381;
}

variable n0024q0011 {
  type discrete [ 2 ] { ZERO, ONE };
}
probability ( n0024q0011 | n0023q0011 ) {
  (ZERO) 1, 0;
  (ONE ) 0, 456381;
}

variable n0024q0003 {
  type discrete [ 2 ] { ZERO, ONE };
}
probability ( n0024q0003 | n0023q0003 ) {
  (ZERO) 1, 0;
  (ONE ) 0, 456381;
}

variable n0024q0002 {
  type discrete [ 2 ] { ZERO, ONE };
}
probability ( n0024q0002 | n0018q0002 ) {
  (ZERO) 1, 0;
  (ONE ) 0, 456381;
}

variable n0024q0014 {
  type discrete [ 2 ] { ZERO, ONE };
}
probability ( n0024q0014 | n0022q0014 ) {
  (ZERO) 1, 0;
  (ONE ) 0, 456381;
}

variable n0024q0015 {
  type discrete [ 2 ] { ZERO, ONE };
}
probability ( n0024q0015 | n0023q0015 ) {
  (ZERO) 1, 0;
  (ONE ) 0, 456381;
}

variable n0024q0007 {
  type discrete [ 2 ] { ZERO, ONE };
}
probability ( n0024q0007 | n0023q0007 ) {
  (ZERO) 1, 0;
  (ONE ) 0, 456381;
}

variable n0024q0010 {
  type discrete [ 2 ] { ZERO, ONE };
}
probability ( n0024q0010 | n0017q0010 ) {
  (ZERO) 1, 0;
  (ONE ) 0, 456381;
}

variable n0025q0011 {
  type discrete [ 2 ] { ZERO, ONE };
}
probability ( n0025q0011 | n0024q0008, n0024q0011 ) {
  (ZERO,ZERO) 815711, 0;
  (ZERO,ONE ) 0, 815711;
  (ONE ,ZERO) 815711, 0;
  (ONE ,ONE ) 0, 197524;
}

variable n0025q0002 {
  type discrete [ 2 ] { ZERO, ONE };
}
probability ( n0025q0002 | n0024q0003, n0024q0002 ) {
  (ZERO,ZERO) 815711, 0;
  (ZERO,ONE ) 0, 815711;
  (ONE ,ZERO) 815711, 0;
  (ONE ,ONE ) 0, 197524;
}

variable n0025q0015 {
  type discrete [ 2 ] { ZERO, ONE };
}
probability ( n0025q0015 | n0024q0014, n0024q0015 ) {
  (ZERO,ZERO) 815711, 0;
  (ZERO,ONE ) 0, 815711;
  (ONE ,ZERO) 815711, 0;
  (ONE ,ONE ) 0, 197524;
}

variable n0025q0010 {
  type discrete [ 2 ] { ZERO, ONE };
}
probability ( n0025q0010 | n0024q0007, n0024q0010 ) {
  (ZERO,ZERO) 815711, 0;
  (ZERO,ONE ) 0, 815711;
  (ONE ,ZERO) 815711, 0;
  (ONE ,ONE ) 0, 197524;
}

variable n0026q0014 {
  type discrete [ 2 ] { ZERO, ONE };
}
probability ( n0026q0014 | n0024q0014 ) {
  (ZERO) 601793, 770493;
  (ONE ) 770493, 601793;
}

variable n0026q0008 {
  type discrete [ 2 ] { ZERO, ONE };
}
probability ( n0026q0008 | n0024q0008 ) {
  (ZERO) 1, 0;
  (ONE ) 0, 456381;
}

variable n0026q0001 {
  type discrete [ 2 ] { ZERO, ONE };
}
probability ( n0026q0001 | n0017q0001 ) {
  (ZERO) 1, 0;
  (ONE ) 0, 456381;
}

variable n0026q0003 {
  type discrete [ 2 ] { ZERO, ONE };
}
probability ( n0026q0003 | n0024q0003 ) {
  (ZERO) 1, 0;
  (ONE ) 0, 456381;
}

variable n0026q0012 {
  type discrete [ 2 ] { ZERO, ONE };
}
probability ( n0026q0012 | n0021q0012 ) {
  (ZERO) 1, 0;
  (ONE ) 0, 456381;
}

variable n0026q0007 {
  type discrete [ 2 ] { ZERO, ONE };
}
probability ( n0026q0007 | n0024q0007 ) {
  (ZERO) 1, 0;
  (ONE ) 0, 456381;
}

variable n0026q0002 {
  type discrete [ 2 ] { ZERO, ONE };
}
probability ( n0026q0002 | n0025q0002 ) {
  (ZERO) 1, 0;
  (ONE ) 0, 456381;
}

variable n0026q0010 {
  type discrete [ 2 ] { ZERO, ONE };
}
probability ( n0026q0010 | n0025q0010 ) {
  (ZERO) 1, 0;
  (ONE ) 0, 456381;
}

variable n0026q0004 {
  type discrete [ 2 ] { ZERO, ONE };
}
probability ( n0026q0004 | n0018q0004 ) {
  (ZERO) 1, 0;
  (ONE ) 0, 456381;
}

variable n0027q0001 {
  type discrete [ 2 ] { ZERO, ONE };
}
probability ( n0027q0001 | n0026q0008, n0026q0001 ) {
  (ZERO,ZERO) 815711, 0;
  (ZERO,ONE ) 0, 815711;
  (ONE ,ZERO) 815711, 0;
  (ONE ,ONE ) 0, 197524;
}

variable n0027q0012 {
  type discrete [ 2 ] { ZERO, ONE };
}
probability ( n0027q0012 | n0026q0003, n0026q0012 ) {
  (ZERO,ZERO) 815711, 0;
  (ZERO,ONE ) 0, 815711;
  (ONE ,ZERO) 815711, 0;
  (ONE ,ONE ) 0, 197524;
}

variable n0027q0002 {
  type discrete [ 2 ] { ZERO, ONE };
}
probability ( n0027q0002 | n0026q0007, n0026q0002 ) {
  (ZERO,ZERO) 815711, 0;
  (ZERO,ONE ) 0, 815711;
  (ONE ,ZERO) 815711, 0;
  (ONE ,ONE ) 0, 197524;
}

variable n0027q0004 {
  type discrete [ 2 ] { ZERO, ONE };
}
probability ( n0027q0004 | n0026q0010, n0026q0004 ) {
  (ZERO,ZERO) 815711, 0;
  (ZERO,ONE ) 0, 815711;
  (ONE ,ZERO) 815711, 0;
  (ONE ,ONE ) 0, 197524;
}

variable n0028q0003 {
  type discrete [ 2 ] { ZERO, ONE };
}
probability ( n0028q0003 | n0026q0003 ) {
  (ZERO) 601793, 770493;
  (ONE ) 770493, 601793;
}

variable n0028q0007 {
  type discrete [ 2 ] { ZERO, ONE };
}
probability ( n0028q0007 | n0026q0007 ) {
  (ZERO) 601793, 770493;
  (ONE ) 770493, 601793;
}

variable n0028q0008 {
  type discrete [ 2 ] { ZERO, ONE };
}
probability ( n0028q0008 | n0026q0008 ) {
  (ZERO) 601793, 770493;
  (ONE ) 770493, 601793;
}

variable n0028q0010 {
  type discrete [ 2 ] { ZERO, ONE };
}
probability ( n0028q0010 | n0026q0010 ) {
  (ZERO) 601793, 770493;
  (ONE ) 770493, 601793;
}

variable n0028q0001 {
  type discrete [ 2 ] { ZERO, ONE };
}
probability ( n0028q0001 | n0027q0001 ) {
  (ZERO) 1, 0;
  (ONE ) 0, 456381;
}

variable n0028q0011 {
  type discrete [ 2 ] { ZERO, ONE };
}
probability ( n0028q0011 | n0025q0011 ) {
  (ZERO) 1, 0;
  (ONE ) 0, 456381;
}

variable n0028q0006 {
  type discrete [ 2 ] { ZERO, ONE };
}
probability ( n0028q0006 | n0022q0006 ) {
  (ZERO) 1, 0;
  (ONE ) 0, 456381;
}

variable n0028q0012 {
  type discrete [ 2 ] { ZERO, ONE };
}
probability ( n0028q0012 | n0027q0012 ) {
  (ZERO) 1, 0;
  (ONE ) 0, 456381;
}

variable n0028q0015 {
  type discrete [ 2 ] { ZERO, ONE };
}
probability ( n0028q0015 | n0025q0015 ) {
  (ZERO) 1, 0;
  (ONE ) 0, 456381;
}

variable n0028q0004 {
  type discrete [ 2 ] { ZERO, ONE };
}
probability ( n0028q0004 | n0027q0004 ) {
  (ZERO) 1, 0;
  (ONE ) 0, 456381;
}

variable n0029q0011 {
  type discrete [ 2 ] { ZERO, ONE };
}
probability ( n0029q0011 | n0028q0001, n0028q0011 ) {
  (ZERO,ZERO) 815711, 0;
  (ZERO,ONE ) 0, 815711;
  (ONE ,ZERO) 815711, 0;
  (ONE ,ONE ) 0, 197524;
}

variable n0029q0012 {
  type discrete [ 2 ] { ZERO, ONE };
}
probability ( n0029q0012 | n0028q0006, n0028q0012 ) {
  (ZERO,ZERO) 815711, 0;
  (ZERO,ONE ) 0, 815711;
  (ONE ,ZERO) 815711, 0;
  (ONE ,ONE ) 0, 197524;
}

variable n0029q0004 {
  type discrete [ 2 ] { ZERO, ONE };
}
probability ( n0029q0004 | n0028q0015, n0028q0004 ) {
  (ZERO,ZERO) 815711, 0;
  (ZERO,ONE ) 0, 815711;
  (ONE ,ZERO) 815711, 0;
  (ONE ,ONE ) 0, 197524;
}

variable n0030q0001 {
  type discrete [ 2 ] { ZERO, ONE };
}
probability ( n0030q0001 | n0028q0001 ) {
  (ZERO) 601793, 770493;
  (ONE ) 770493, 601793;
}

variable n0030q0006 {
  type discrete [ 2 ] { ZERO, ONE };
}
probability ( n0030q0006 | n0028q0006 ) {
  (ZERO) 601793, 770493;
  (ONE ) 770493, 601793;
}

variable n0030q0011 {
  type discrete [ 2 ] { ZERO, ONE };
}
probability ( n0030q0011 | n0029q0011 ) {
  (ZERO) 601793, 770493;
  (ONE ) 770493, 601793;
}

variable n0030q0012 {
  type discrete [ 2 ] { ZERO, ONE };
}
probability ( n0030q0012 | n0029q0012 ) {
  (ZERO) 601793, 770493;
  (ONE ) 770493, 601793;
}

variable n0030q0015 {
  type discrete [ 2 ] { ZERO, ONE };
}
probability ( n0030q0015 | n0028q0015 ) {
  (ZERO) 601793, 770493;
  (ONE ) 770493, 601793;
}

variable n0030q0004 {
  type discrete [ 2 ] { ZERO, ONE };
}
probability ( n0030q0004 | n0029q0004 ) {
  (ZERO) 1, 0;
  (ONE ) 0, 456381;
}

variable n0030q0002 {
  type discrete [ 2 ] { ZERO, ONE };
}
probability ( n0030q0002 | n0027q0002 ) {
  (ZERO) 1, 0;
  (ONE ) 0, 456381;
}

variable n0031q0002 {
  type discrete [ 2 ] { ZERO, ONE };
}
probability ( n0031q0002 | n0030q0004, n0030q0002 ) {
  (ZERO,ZERO) 815711, 0;
  (ZERO,ONE ) 0, 815711;
  (ONE ,ZERO) 815711, 0;
  (ONE ,ONE ) 0, 197524;
}

variable n0032q0002 {
  type discrete [ 2 ] { ZERO, ONE };
}
probability ( n0032q0002 | n0031q0002 ) {
  (ZERO) 601793, 770493;
  (ONE ) 770493, 601793;
}

variable n0032q0004 {
  type discrete [ 2 ] { ZERO, ONE };
}
probability ( n0032q0004 | n0030q0004 ) {
  (ZERO) 601793, 770493;
  (ONE ) 770493, 601793;
}

